<?xml version="1.0"?>
<opencv_storage>
<cascade>
  <stageType>BOOST</stageType>
  <featureType>HAAR</featureType>
  <height>20</height>
  <width>20</width>
  <stageParams>
    <boostType>GAB</boostType>
    <minHitRate>9.9500000476837158e-01</minHitRate>
    <maxFalseAlarm>5.0000000000000000e-01</maxFalseAlarm>
    <weightTrimRate>9.4999999999999996e-01</weightTrimRate>
    <maxDepth>1</maxDepth>
    <maxWeakCount>100</maxWeakCount></stageParams>
  <featureParams>
    <maxCatCount>0</maxCatCount>
    <featSize>1</featSize>
    <mode>ALL</mode></featureParams>
  <stageNum>13</stageNum>
  <stages>
    <!-- stage 0 -->
    <_>
      <maxWeakCount>4</maxWeakCount>
      <stageThreshold>-1.7720340490341187e+00</stageThreshold>
      <weakClassifiers>
        <_>
          <internalNodes>
            0 -1 88 6.2603086233139038e-02</internalNodes>
          <leafValues>
            -9.3129104375839233e-01 8.7999999523162842e-01</leafValues></_>
        <_>
          <internalNodes>
            0 -1 1 -2.2907018661499023e-01</internalNodes>
          <leafValues>
            6.4760404825210571e-01 -8.0258864164352417e-01</leafValues></_>
        <_>
          <internalNodes>
            0 -1 20 3.4766506403684616e-02</internalNodes>
          <leafValues>
            -4.9657553434371948e-01 8.6440598964691162e-01</leafValues></_>
        <_>
          <internalNodes>
            0 -1 32 -6.6151181235909462e-03</internalNodes>
          <leafValues>
            4.5842117071151733e-01 -6.1973506212234497e-01</leafValues></_></weakClassifiers></_>
    <!-- stage 1 -->
    <_>
      <maxWeakCount>5</maxWeakCount>
      <stageThreshold>-2.2494416236877441e+00</stageThreshold>
      <weakClassifiers>
        <_>
          <internalNodes>
            0 -1 40 6.1160601675510406e-02</internalNodes>
          <leafValues>
            -9.3312799930572510e-01 4.0540540218353271e-01</leafValues></_>
        <_>
          <internalNodes>
            0 -1 39 -4.4038116931915283e-02</internalNodes>
          <leafValues>
            6.3768452405929565e-01 -7.3267936706542969e-01</leafValues></_>
        <_>
          <internalNodes>
            0 -1 43 2.6663755998015404e-03</internalNodes>
          <leafValues>
            1.2737943232059479e-01 -8.9009541273117065e-01</leafValues></_>
        <_>
          <internalNodes>
            0 -1 48 1.5669738641008735e-03</internalNodes>
          <leafValues>
            1.6473887860774994e-01 -9.7508525848388672e-01</leafValues></_>
        <_>
          <internalNodes>
            0 -1 46 1.4032414183020592e-03</internalNodes>
          <leafValues>
            1.8064686655998230e-01 -8.7575250864028931e-01</leafValues></_></weakClassifiers></_>
    <!-- stage 2 -->
    <_>
      <maxWeakCount>5</maxWeakCount>
      <stageThreshold>-2.0746192932128906e+00</stageThreshold>
      <weakClassifiers>
        <_>
          <internalNodes>
            0 -1 15 -4.6955354511737823e-02</internalNodes>
          <leafValues>
            3.6708861589431763e-01 -9.3393528461456299e-01</leafValues></_>
        <_>
          <internalNodes>
            0 -1 65 4.1324175894260406e-02</internalNodes>
          <leafValues>
            -7.3008662462234497e-01 5.8659958839416504e-01</leafValues></_>
        <_>
          <internalNodes>
            0 -1 56 -5.8959430316463113e-04</internalNodes>
          <leafValues>
            -7.4163955450057983e-01 2.3310114443302155e-01</leafValues></_>
        <_>
          <internalNodes>
            0 -1 76 5.6894250214099884e-02</internalNodes>
          <leafValues>
            1.9386255741119385e-01 -8.5067278146743774e-01</leafValues></_>
        <_>
          <internalNodes>
            0 -1 49 1.3965817634016275e-03</internalNodes>
          <leafValues>
            2.0697422325611115e-01 -9.0659189224243164e-01</leafValues></_></weakClassifiers></_>
    <!-- stage 3 -->
    <_>
      <maxWeakCount>5</maxWeakCount>
      <stageThreshold>-1.9600598812103271e+00</stageThreshold>
      <weakClassifiers>
        <_>
          <internalNodes>
            0 -1 91 -5.4229643195867538e-02</internalNodes>
          <leafValues>
            7.0909088850021362e-01 -9.3121576309204102e-01</leafValues></_>
        <_>
          <internalNodes>
            0 -1 89 4.7294497489929199e-02</internalNodes>
          <leafValues>
            -7.2358536720275879e-01 7.5854480266571045e-01</leafValues></_>
        <_>
          <internalNodes>
            0 -1 27 9.7765389364212751e-04</internalNodes>
          <leafValues>
            -5.7049393653869629e-01 3.3091378211975098e-01</leafValues></_>
        <_>
          <internalNodes>
            0 -1 74 3.7483181804418564e-03</internalNodes>
          <leafValues>
            1.9904479384422302e-01 -8.4054398536682129e-01</leafValues></_>
        <_>
          <internalNodes>
            0 -1 55 -1.9856484141200781e-03</internalNodes>
          <leafValues>
            -7.6920634508132935e-01 2.0437139272689819e-01</leafValues></_></weakClassifiers></_>
    <!-- stage 4 -->
    <_>
      <maxWeakCount>7</maxWeakCount>
      <stageThreshold>-2.0106172561645508e+00</stageThreshold>
      <weakClassifiers>
        <_>
          <internalNodes>
            0 -1 69 -5.4582320153713226e-02</internalNodes>
          <leafValues>
            2.9870128631591797e-01 -9.3220341205596924e-01</leafValues></_>
        <_>
          <internalNodes>
            0 -1 4 2.2947141528129578e-01</internalNodes>
          <leafValues>
            -7.1914851665496826e-01 4.5218631625175476e-01</leafValues></_>
        <_>
          <internalNodes>
            0 -1 80 -2.5781351141631603e-03</internalNodes>
          <leafValues>
            -8.2534718513488770e-01 1.6265791654586792e-01</leafValues></_>
        <_>
          <internalNodes>
            0 -1 47 1.8205426167696714e-03</internalNodes>
          <leafValues>
            1.5068945288658142e-01 -8.3074498176574707e-01</leafValues></_>
        <_>
          <internalNodes>
            0 -1 60 4.7036497853696346e-03</internalNodes>
          <leafValues>
            -3.6971297860145569e-01 5.2172017097473145e-01</leafValues></_>
        <_>
          <internalNodes>
            0 -1 38 1.0179686360061169e-03</internalNodes>
          <leafValues>
            1.9557711482048035e-01 -9.1909360885620117e-01</leafValues></_>
        <_>
          <internalNodes>
            0 -1 89 -1.7572399228811264e-02</internalNodes>
          <leafValues>
            6.4694666862487793e-01 -2.7523916959762573e-01</leafValues></_></weakClassifiers></_>
    <!-- stage 5 -->
    <_>
      <maxWeakCount>9</maxWeakCount>
      <stageThreshold>-2.3833506107330322e+00</stageThreshold>
      <weakClassifiers>
        <_>
          <internalNodes>
            0 -1 70 -5.3946144878864288e-02</internalNodes>
          <leafValues>
            6.3999998569488525e-01 -9.2866522073745728e-01</leafValues></_>
        <_>
          <internalNodes>
            0 -1 68 -2.8794243931770325e-02</internalNodes>
          <leafValues>
            5.0421088933944702e-01 -7.2349995374679565e-01</leafValues></_>
        <_>
          <internalNodes>
            0 -1 24 -1.3933899812400341e-02</internalNodes>
          <leafValues>
            3.1637135148048401e-01 -6.1974787712097168e-01</leafValues></_>
        <_>
          <internalNodes>
            0 -1 86 6.4420956186950207e-04</internalNodes>
          <leafValues>
            -3.9749231934547424e-01 5.3223544359207153e-01</leafValues></_>
        <_>
          <internalNodes>
            0 -1 42 -1.0873454622924328e-02</internalNodes>
          <leafValues>
            5.9904688596725464e-01 -2.6553133130073547e-01</leafValues></_>
        <_>
          <internalNodes>
            0 -1 57 -1.8017704132944345e-03</internalNodes>
          <leafValues>
            -7.6082670688629150e-01 2.3249843716621399e-01</leafValues></_>
        <_>
          <internalNodes>
            0 -1 58 2.1100090816617012e-03</internalNodes>
          <leafValues>
            1.9445638358592987e-01 -8.9158171415328979e-01</leafValues></_>
        <_>
          <internalNodes>
            0 -1 22 -1.5551800606772304e-03</internalNodes>
          <leafValues>
            3.9551571011543274e-01 -4.6011957526206970e-01</leafValues></_>
        <_>
          <internalNodes>
            0 -1 50 -1.1005649343132973e-02</internalNodes>
          <leafValues>
            6.6614824533462524e-01 -2.7088451385498047e-01</leafValues></_></weakClassifiers></_>
    <!-- stage 6 -->
    <_>
      <maxWeakCount>8</maxWeakCount>
      <stageThreshold>-2.2199115753173828e+00</stageThreshold>
      <weakClassifiers>
        <_>
          <internalNodes>
            0 -1 5 6.6330730915069580e-02</internalNodes>
          <leafValues>
            -9.3205380439758301e-01 1.4942528307437897e-01</leafValues></_>
        <_>
          <internalNodes>
            0 -1 6 -4.2811051011085510e-02</internalNodes>
          <leafValues>
            5.8001840114593506e-01 -7.1465301513671875e-01</leafValues></_>
        <_>
          <internalNodes>
            0 -1 7 3.2384075224399567e-02</internalNodes>
          <leafValues>
            -3.4155932068824768e-01 7.0896863937377930e-01</leafValues></_>
        <_>
          <internalNodes>
            0 -1 45 -2.2728303447365761e-03</internalNodes>
          <leafValues>
            -7.1966183185577393e-01 2.3975646495819092e-01</leafValues></_>
        <_>
          <internalNodes>
            0 -1 35 2.5251819752156734e-03</internalNodes>
          <leafValues>
            2.0300748944282532e-01 -8.1015247106552124e-01</leafValues></_>
        <_>
          <internalNodes>
            0 -1 78 5.3516647312790155e-04</internalNodes>
          <leafValues>
            -3.5917741060256958e-01 4.6438291668891907e-01</leafValues></_>
        <_>
          <internalNodes>
            0 -1 41 -4.3188445270061493e-03</internalNodes>
          <leafValues>
            -7.6379615068435669e-01 2.5799694657325745e-01</leafValues></_>
        <_>
          <internalNodes>
            0 -1 28 6.1477662529796362e-04</internalNodes>
          <leafValues>
            -3.8310664892196655e-01 4.4856414198875427e-01</leafValues></_></weakClassifiers></_>
    <!-- stage 7 -->
    <_>
      <maxWeakCount>7</maxWeakCount>
      <stageThreshold>-2.1593556404113770e+00</stageThreshold>
      <weakClassifiers>
        <_>
          <internalNodes>
            0 -1 53 6.5572991967201233e-02</internalNodes>
          <leafValues>
            -9.3042713403701782e-01 1.7948718369007111e-01</leafValues></_>
        <_>
          <internalNodes>
            0 -1 30 3.4717094153165817e-02</internalNodes>
          <leafValues>
            -7.0463323593139648e-01 5.3090685606002808e-01</leafValues></_>
        <_>
          <internalNodes>
            0 -1 31 -1.8836833536624908e-02</internalNodes>
          <leafValues>
            5.4557335376739502e-01 -4.0595415234565735e-01</leafValues></_>
        <_>
          <internalNodes>
            0 -1 85 1.8358516972512007e-03</internalNodes>
          <leafValues>
            1.9471196830272675e-01 -8.5953181982040405e-01</leafValues></_>
        <_>
          <internalNodes>
            0 -1 11 -7.3177004233002663e-03</internalNodes>
          <leafValues>
            4.5300740003585815e-01 -3.5170486569404602e-01</leafValues></_>
        <_>
          <internalNodes>
            0 -1 2 1.6717970371246338e-01</internalNodes>
          <leafValues>
            -2.0738016068935394e-01 7.9068404436111450e-01</leafValues></_>
        <_>
          <internalNodes>
            0 -1 79 -2.5855130515992641e-03</internalNodes>
          <leafValues>
            4.9292430281639099e-01 -4.5596408843994141e-01</leafValues></_></weakClassifiers></_>
    <!-- stage 8 -->
    <_>
      <maxWeakCount>11</maxWeakCount>
      <stageThreshold>-2.0943248271942139e+00</stageThreshold>
      <weakClassifiers>
        <_>
          <internalNodes>
            0 -1 92 5.6431137025356293e-02</internalNodes>
          <leafValues>
            -9.2898100614547729e-01 2.3297740475903037e-17</leafValues></_>
        <_>
          <internalNodes>
            0 -1 3 -8.8233429193496704e-01</internalNodes>
          <leafValues>
            3.2653340697288513e-01 -7.0200788974761963e-01</leafValues></_>
        <_>
          <internalNodes>
            0 -1 61 3.9564587175846100e-02</internalNodes>
          <leafValues>
            -3.3362120389938354e-01 5.9513163566589355e-01</leafValues></_>
        <_>
          <internalNodes>
            0 -1 25 -2.2772550582885742e-03</internalNodes>
          <leafValues>
            -9.0161126852035522e-01 1.6341283917427063e-01</leafValues></_>
        <_>
          <internalNodes>
            0 -1 26 1.4240073505789042e-03</internalNodes>
          <leafValues>
            -2.4827066063880920e-01 6.1357170343399048e-01</leafValues></_>
        <_>
          <internalNodes>
            0 -1 38 -1.3651796616613865e-03</internalNodes>
          <leafValues>
            -8.0104881525039673e-01 1.7299863696098328e-01</leafValues></_>
        <_>
          <internalNodes>
            0 -1 8 7.2174740489572287e-04</internalNodes>
          <leafValues>
            -2.9551756381988525e-01 4.5343214273452759e-01</leafValues></_>
        <_>
          <internalNodes>
            0 -1 36 1.4924674760550261e-03</internalNodes>
          <leafValues>
            1.5598356723785400e-01 -8.9925122261047363e-01</leafValues></_>
        <_>
          <internalNodes>
            0 -1 17 4.7098519280552864e-03</internalNodes>
          <leafValues>
            -2.9495364427566528e-01 5.4212266206741333e-01</leafValues></_>
        <_>
          <internalNodes>
            0 -1 52 -1.9765051081776619e-02</internalNodes>
          <leafValues>
            6.0467147827148438e-01 -2.4353954195976257e-01</leafValues></_>
        <_>
          <internalNodes>
            0 -1 10 3.1537279486656189e-02</internalNodes>
          <leafValues>
            -1.8485753238201141e-01 6.2915647029876709e-01</leafValues></_></weakClassifiers></_>
    <!-- stage 9 -->
    <_>
      <maxWeakCount>9</maxWeakCount>
      <stageThreshold>-2.4490587711334229e+00</stageThreshold>
      <weakClassifiers>
        <_>
          <internalNodes>
            0 -1 88 -6.3529014587402344e-02</internalNodes>
          <leafValues>
            4.0909090638160706e-01 -9.2438811063766479e-01</leafValues></_>
        <_>
          <internalNodes>
            0 -1 64 -1.3310145586729050e-03</internalNodes>
          <leafValues>
            -2.2395719587802887e-01 -8.1914401054382324e-01</leafValues></_>
        <_>
          <internalNodes>
            0 -1 37 -1.5362028498202562e-03</internalNodes>
          <leafValues>
            1.6193450987339020e-01 -6.5282374620437622e-01</leafValues></_>
        <_>
          <internalNodes>
            0 -1 9 1.4867398142814636e-01</internalNodes>
          <leafValues>
            -2.5182116031646729e-01 5.9028053283691406e-01</leafValues></_>
        <_>
          <internalNodes>
            0 -1 59 1.5016027027741075e-03</internalNodes>
          <leafValues>
            1.9272668659687042e-01 -7.8949749469757080e-01</leafValues></_>
        <_>
          <internalNodes>
            0 -1 19 -7.6638674363493919e-04</internalNodes>
          <leafValues>
            3.5521602630615234e-01 -4.1801247000694275e-01</leafValues></_>
        <_>
          <internalNodes>
            0 -1 5 -1.9786000251770020e-02</internalNodes>
          <leafValues>
            6.0636872053146362e-01 -2.4945925176143646e-01</leafValues></_>
        <_>
          <internalNodes>
            0 -1 34 2.7709808200597763e-03</internalNodes>
          <leafValues>
            1.9393298029899597e-01 -8.1705427169799805e-01</leafValues></_>
        <_>
          <internalNodes>
            0 -1 23 -7.6835823711007833e-04</internalNodes>
          <leafValues>
            4.2827397584915161e-01 -3.3482804894447327e-01</leafValues></_></weakClassifiers></_>
    <!-- stage 10 -->
    <_>
      <maxWeakCount>9</maxWeakCount>
      <stageThreshold>-2.3724672794342041e+00</stageThreshold>
      <weakClassifiers>
        <_>
          <internalNodes>
            0 -1 71 -4.5887142419815063e-02</internalNodes>
          <leafValues>
            1.1428571492433548e-01 -9.2747253179550171e-01</leafValues></_>
        <_>
          <internalNodes>
            0 -1 72 1.4360840432345867e-03</internalNodes>
          <leafValues>
            -7.3845022916793823e-01 -5.1427934318780899e-02</leafValues></_>
        <_>
          <internalNodes>
            0 -1 81 -2.9584462754428387e-03</internalNodes>
          <leafValues>
            1.1193413287401199e-01 -6.3992512226104736e-01</leafValues></_>
        <_>
          <internalNodes>
            0 -1 44 -1.6555460169911385e-03</internalNodes>
          <leafValues>
            -4.8289099335670471e-01 2.3762361705303192e-01</leafValues></_>
        <_>
          <internalNodes>
            0 -1 21 -1.9890941679477692e-02</internalNodes>
          <leafValues>
            -8.3946228027343750e-01 1.6164499521255493e-01</leafValues></_>
        <_>
          <internalNodes>
            0 -1 14 1.0338378138840199e-02</internalNodes>
          <leafValues>
            1.3669048249721527e-01 -6.8910002708435059e-01</leafValues></_>
        <_>
          <internalNodes>
            0 -1 54 -6.5887649543583393e-03</internalNodes>
          <leafValues>
            3.9565420150756836e-01 -3.1024995446205139e-01</leafValues></_>
        <_>
          <internalNodes>
            0 -1 77 -2.9400018975138664e-03</internalNodes>
          <leafValues>
            -8.7961286306381226e-01 1.3099387288093567e-01</leafValues></_>
        <_>
          <internalNodes>
            0 -1 62 -2.1370067261159420e-03</internalNodes>
          <leafValues>
            3.8936898112297058e-01 -3.4939113259315491e-01</leafValues></_></weakClassifiers></_>
    <!-- stage 11 -->
    <_>
      <maxWeakCount>10</maxWeakCount>
      <stageThreshold>-2.1964008808135986e+00</stageThreshold>
      <weakClassifiers>
        <_>
          <internalNodes>
            0 -1 93 -4.9399837851524353e-02</internalNodes>
          <leafValues>
            -1.2987012974917889e-02 -9.2692053318023682e-01</leafValues></_>
        <_>
          <internalNodes>
            0 -1 13 4.9900859594345093e-02</internalNodes>
          <leafValues>
            -6.7771232128143311e-01 2.1499478816986084e-01</leafValues></_>
        <_>
          <internalNodes>
            0 -1 87 -6.1310327146202326e-04</internalNodes>
          <leafValues>
            3.2385814189910889e-01 -4.2065876722335815e-01</leafValues></_>
        <_>
          <internalNodes>
            0 -1 73 2.2725258022546768e-03</internalNodes>
          <leafValues>
            1.6357178986072540e-01 -8.0219018459320068e-01</leafValues></_>
        <_>
          <internalNodes>
            0 -1 16 -4.6449908986687660e-03</internalNodes>
          <leafValues>
            3.6110585927963257e-01 -3.6932918429374695e-01</leafValues></_>
        <_>
          <internalNodes>
            0 -1 12 -5.3403410129249096e-04</internalNodes>
          <leafValues>
            4.4633877277374268e-01 -3.0856475234031677e-01</leafValues></_>
        <_>
          <internalNodes>
            0 -1 63 7.8476330963894725e-04</internalNodes>
          <leafValues>
            2.4472525715827942e-01 -6.1351382732391357e-01</leafValues></_>
        <_>
          <internalNodes>
            0 -1 33 -2.5169122964143753e-03</internalNodes>
          <leafValues>
            -7.7374446392059326e-01 1.3848672807216644e-01</leafValues></_>
        <_>
          <internalNodes>
            0 -1 82 8.6521240882575512e-04</internalNodes>
          <leafValues>
            -2.8760978579521179e-01 4.2618617415428162e-01</leafValues></_>
        <_>
          <internalNodes>
            0 -1 66 -1.8664246890693903e-03</internalNodes>
          <leafValues>
            5.6719607114791870e-01 -2.6157930493354797e-01</leafValues></_></weakClassifiers></_>
    <!-- stage 12 -->
    <_>
      <maxWeakCount>9</maxWeakCount>
      <stageThreshold>-2.4492151737213135e+00</stageThreshold>
      <weakClassifiers>
        <_>
          <internalNodes>
            0 -1 51 -7.1322672069072723e-02</internalNodes>
          <leafValues>
            1.5999999642372131e-01 -9.2341357469558716e-01</leafValues></_>
        <_>
          <internalNodes>
            0 -1 90 -3.4340865910053253e-02</internalNodes>
          <leafValues>
            2.3753778636455536e-01 -6.7458975315093994e-01</leafValues></_>
        <_>
          <internalNodes>
            0 -1 83 -2.8001149185001850e-03</internalNodes>
          <leafValues>
            1.1827804893255234e-01 -6.1197954416275024e-01</leafValues></_>
        <_>
          <internalNodes>
            0 -1 0 1.2901647388935089e-01</internalNodes>
          <leafValues>
            -2.1867841482162476e-01 5.9565806388854980e-01</leafValues></_>
        <_>
          <internalNodes>
            0 -1 84 1.0948844719678164e-03</internalNodes>
          <leafValues>
            -3.8826394081115723e-01 3.2459604740142822e-01</leafValues></_>
        <_>
          <internalNodes>
            0 -1 75 2.6754052378237247e-03</internalNodes>
          <leafValues>
            2.1639721095561981e-01 -7.1717119216918945e-01</leafValues></_>
        <_>
          <internalNodes>
            0 -1 67 -9.6247636247426271e-04</internalNodes>
          <leafValues>
            -4.9197575449943542e-01 2.1521005034446716e-01</leafValues></_>
        <_>
          <internalNodes>
            0 -1 18 -1.5937875956296921e-02</internalNodes>
          <leafValues>
            5.1989799737930298e-01 -2.2244271636009216e-01</leafValues></_>
        <_>
          <internalNodes>
            0 -1 29 -5.5448882281780243e-02</internalNodes>
          <leafValues>
            -9.0757125616073608e-01 1.3547375798225403e-01</leafValues></_></weakClassifiers></_></stages>
  <features>
    <_>
      <rects>
        <_>
          0 1 8 18 -1.</_>
        <_>
          0 7 8 6 3.</_></rects>
      <tilted>0</tilted></_>
    <_>
      <rects>
        <_>
          0 2 20 15 -1.</_>
        <_>
          5 2 10 15 2.</_></rects>
      <tilted>0</tilted></_>
    <_>
      <rects>
        <_>
          0 3 20 14 -1.</_>
        <_>
          5 3 10 14 2.</_></rects>
      <tilted>0</tilted></_>
    <_>
      <rects>
        <_>
          1 1 18 18 -1.</_>
        <_>
          7 7 6 6 9.</_></rects>
      <tilted>0</tilted></_>
    <_>
      <rects>
        <_>
          2 0 16 20 -1.</_>
        <_>
          2 5 16 10 2.</_></rects>
      <tilted>0</tilted></_>
    <_>
      <rects>
        <_>
          3 8 9 3 -1.</_>
        <_>
          2 9 9 1 3.</_></rects>
      <tilted>1</tilted></_>
    <_>
      <rects>
        <_>
          3 9 7 3 -1.</_>
        <_>
          2 10 7 1 3.</_></rects>
      <tilted>1</tilted></_>
    <_>
      <rects>
        <_>
          3 10 7 3 -1.</_>
        <_>
          2 11 7 1 3.</_></rects>
      <tilted>1</tilted></_>
    <_>
      <rects>
        <_>
          3 12 2 2 -1.</_>
        <_>
          3 12 1 1 2.</_>
        <_>
          4 13 1 1 2.</_></rects>
      <tilted>0</tilted></_>
    <_>
      <rects>
        <_>
          4 0 14 20 -1.</_>
        <_>
          4 5 14 10 2.</_></rects>
      <tilted>0</tilted></_>
    <_>
      <rects>
        <_>
          4 1 16 2 -1.</_>
        <_>
          8 5 8 2 2.</_></rects>
      <tilted>1</tilted></_>
    <_>
      <rects>
        <_>
          4 3 4 6 -1.</_>
        <_>
          6 3 2 6 2.</_></rects>
      <tilted>0</tilted></_>
    <_>
      <rects>
        <_>
          4 5 2 2 -1.</_>
        <_>
          4 5 1 1 2.</_>
        <_>
          5 6 1 1 2.</_></rects>
      <tilted>0</tilted></_>
    <_>
      <rects>
        <_>
          4 8 9 3 -1.</_>
        <_>
          3 9 9 1 3.</_></rects>
      <tilted>1</tilted></_>
    <_>
      <rects>
        <_>
          4 10 6 2 -1.</_>
        <_>
          4 10 3 2 2.</_></rects>
      <tilted>1</tilted></_>
    <_>
      <rects>
        <_>
          4 10 6 3 -1.</_>
        <_>
          3 11 6 1 3.</_></rects>
      <tilted>1</tilted></_>
    <_>
      <rects>
        <_>
          4 11 4 5 -1.</_>
        <_>
          6 11 2 5 2.</_></rects>
      <tilted>0</tilted></_>
    <_>
      <rects>
        <_>
          5 4 3 3 -1.</_>
        <_>
          6 5 1 1 9.</_></rects>
      <tilted>0</tilted></_>
    <_>
      <rects>
        <_>
          5 8 7 4 -1.</_>
        <_>
          4 9 7 2 2.</_></rects>
      <tilted>1</tilted></_>
    <_>
      <rects>
        <_>
          5 9 4 6 -1.</_>
        <_>
          5 9 2 3 2.</_>
        <_>
          7 12 2 3 2.</_></rects>
      <tilted>0</tilted></_>
    <_>
      <rects>
        <_>
          5 9 6 4 -1.</_>
        <_>
          4 10 6 2 2.</_></rects>
      <tilted>1</tilted></_>
    <_>
      <rects>
        <_>
          5 10 6 3 -1.</_>
        <_>
          5 10 3 3 2.</_></rects>
      <tilted>1</tilted></_>
    <_>
      <rects>
        <_>
          5 11 6 4 -1.</_>
        <_>
          5 11 3 2 2.</_>
        <_>
          8 13 3 2 2.</_></rects>
      <tilted>0</tilted></_>
    <_>
      <rects>
        <_>
          6 4 2 2 -1.</_>
        <_>
          6 4 1 1 2.</_>
        <_>
          7 5 1 1 2.</_></rects>
      <tilted>0</tilted></_>
    <_>
      <rects>
        <_>
          6 4 8 12 -1.</_>
        <_>
          8 4 4 12 2.</_></rects>
      <tilted>0</tilted></_>
    <_>
      <rects>
        <_>
          6 11 2 2 -1.</_>
        <_>
          6 11 1 2 2.</_></rects>
      <tilted>1</tilted></_>
    <_>
      <rects>
        <_>
          6 12 1 4 -1.</_>
        <_>
          6 13 1 2 2.</_></rects>
      <tilted>0</tilted></_>
    <_>
      <rects>
        <_>
          6 14 4 2 -1.</_>
        <_>
          6 15 4 1 2.</_></rects>
      <tilted>0</tilted></_>
    <_>
      <rects>
        <_>
          6 15 2 2 -1.</_>
        <_>
          6 15 1 1 2.</_>
        <_>
          7 16 1 1 2.</_></rects>
      <tilted>0</tilted></_>
    <_>
      <rects>
        <_>
          7 0 13 6 -1.</_>
        <_>
          7 0 13 3 2.</_></rects>
      <tilted>1</tilted></_>
    <_>
      <rects>
        <_>
          7 1 3 5 -1.</_>
        <_>
          8 2 1 5 3.</_></rects>
      <tilted>1</tilted></_>
    <_>
      <rects>
        <_>
          7 1 3 7 -1.</_>
        <_>
          8 2 1 7 3.</_></rects>
      <tilted>1</tilted></_>
    <_>
      <rects>
        <_>
          7 3 6 6 -1.</_>
        <_>
          7 6 6 3 2.</_></rects>
      <tilted>0</tilted></_>
    <_>
      <rects>
        <_>
          7 4 2 3 -1.</_>
        <_>
          6 5 2 1 3.</_></rects>
      <tilted>1</tilted></_>
    <_>
      <rects>
        <_>
          7 4 5 3 -1.</_>
        <_>
          6 5 5 1 3.</_></rects>
      <tilted>1</tilted></_>
    <_>
      <rects>
        <_>
          7 4 9 2 -1.</_>
        <_>
          7 4 9 1 2.</_></rects>
      <tilted>1</tilted></_>
    <_>
      <rects>
        <_>
          7 5 1 2 -1.</_>
        <_>
          7 5 1 1 2.</_></rects>
      <tilted>1</tilted></_>
    <_>
      <rects>
        <_>
          7 6 8 1 -1.</_>
        <_>
          9 8 4 1 2.</_></rects>
      <tilted>1</tilted></_>
    <_>
      <rects>
        <_>
          7 11 3 1 -1.</_>
        <_>
          8 12 1 1 3.</_></rects>
      <tilted>1</tilted></_>
    <_>
      <rects>
        <_>
          8 0 3 8 -1.</_>
        <_>
          9 1 1 8 3.</_></rects>
      <tilted>1</tilted></_>
    <_>
      <rects>
        <_>
          8 1 3 8 -1.</_>
        <_>
          9 2 1 8 3.</_></rects>
      <tilted>1</tilted></_>
    <_>
      <rects>
        <_>
          8 3 2 4 -1.</_>
        <_>
          8 3 2 2 2.</_></rects>
      <tilted>1</tilted></_>
    <_>
      <rects>
        <_>
          8 4 3 4 -1.</_>
        <_>
          9 5 1 4 3.</_></rects>
      <tilted>1</tilted></_>
    <_>
      <rects>
        <_>
          8 4 3 2 -1.</_>
        <_>
          8 4 3 1 2.</_></rects>
      <tilted>1</tilted></_>
    <_>
      <rects>
        <_>
          8 4 7 4 -1.</_>
        <_>
          7 5 7 2 2.</_></rects>
      <tilted>1</tilted></_>
    <_>
      <rects>
        <_>
          8 5 8 2 -1.</_>
        <_>
          8 5 8 1 2.</_></rects>
      <tilted>1</tilted></_>
    <_>
      <rects>
        <_>
          8 7 4 3 -1.</_>
        <_>
          8 8 4 1 3.</_></rects>
      <tilted>0</tilted></_>
    <_>
      <rects>
        <_>
          8 7 6 2 -1.</_>
        <_>
          8 7 6 1 2.</_></rects>
      <tilted>1</tilted></_>
    <_>
      <rects>
        <_>
          8 8 4 4 -1.</_>
        <_>
          8 9 4 2 2.</_></rects>
      <tilted>0</tilted></_>
    <_>
      <rects>
        <_>
          8 10 4 3 -1.</_>
        <_>
          8 11 4 1 3.</_></rects>
      <tilted>0</tilted></_>
    <_>
      <rects>
        <_>
          8 12 4 4 -1.</_>
        <_>
          7 13 4 2 2.</_></rects>
      <tilted>1</tilted></_>
    <_>
      <rects>
        <_>
          9 0 3 8 -1.</_>
        <_>
          10 1 1 8 3.</_></rects>
      <tilted>1</tilted></_>
    <_>
      <rects>
        <_>
          9 0 4 8 -1.</_>
        <_>
          10 1 2 8 2.</_></rects>
      <tilted>1</tilted></_>
    <_>
      <rects>
        <_>
          9 1 3 8 -1.</_>
        <_>
          10 2 1 8 3.</_></rects>
      <tilted>1</tilted></_>
    <_>
      <rects>
        <_>
          9 3 3 4 -1.</_>
        <_>
          10 4 1 4 3.</_></rects>
      <tilted>1</tilted></_>
    <_>
      <rects>
        <_>
          9 6 5 3 -1.</_>
        <_>
          8 7 5 1 3.</_></rects>
      <tilted>1</tilted></_>
    <_>
      <rects>
        <_>
          9 7 1 6 -1.</_>
        <_>
          9 9 1 2 3.</_></rects>
      <tilted>0</tilted></_>
    <_>
      <rects>
        <_>
          9 8 4 2 -1.</_>
        <_>
          9 8 4 1 2.</_></rects>
      <tilted>1</tilted></_>
    <_>
      <rects>
        <_>
          9 8 6 2 -1.</_>
        <_>
          9 8 6 1 2.</_></rects>
      <tilted>1</tilted></_>
    <_>
      <rects>
        <_>
          9 11 2 3 -1.</_>
        <_>
          9 11 1 3 2.</_></rects>
      <tilted>1</tilted></_>
    <_>
      <rects>
        <_>
          10 9 6 6 -1.</_>
        <_>
          10 9 3 3 2.</_>
        <_>
          13 12 3 3 2.</_></rects>
      <tilted>0</tilted></_>
    <_>
      <rects>
        <_>
          11 0 9 3 -1.</_>
        <_>
          10 1 9 1 3.</_></rects>
      <tilted>1</tilted></_>
    <_>
      <rects>
        <_>
          11 5 4 4 -1.</_>
        <_>
          11 5 2 2 2.</_>
        <_>
          13 7 2 2 2.</_></rects>
      <tilted>0</tilted></_>
    <_>
      <rects>
        <_>
          11 6 2 4 -1.</_>
        <_>
          11 6 1 4 2.</_></rects>
      <tilted>1</tilted></_>
    <_>
      <rects>
        <_>
          11 9 1 9 -1.</_>
        <_>
          11 12 1 3 3.</_></rects>
      <tilted>0</tilted></_>
    <_>
      <rects>
        <_>
          12 0 8 3 -1.</_>
        <_>
          11 1 8 1 3.</_></rects>
      <tilted>1</tilted></_>
    <_>
      <rects>
        <_>
          12 4 4 4 -1.</_>
        <_>
          12 4 2 2 2.</_>
        <_>
          14 6 2 2 2.</_></rects>
      <tilted>0</tilted></_>
    <_>
      <rects>
        <_>
          12 6 5 3 -1.</_>
        <_>
          11 7 5 1 3.</_></rects>
      <tilted>1</tilted></_>
    <_>
      <rects>
        <_>
          13 0 6 3 -1.</_>
        <_>
          12 1 6 1 3.</_></rects>
      <tilted>1</tilted></_>
    <_>
      <rects>
        <_>
          13 0 7 3 -1.</_>
        <_>
          12 1 7 1 3.</_></rects>
      <tilted>1</tilted></_>
    <_>
      <rects>
        <_>
          13 1 7 2 -1.</_>
        <_>
          13 1 7 1 2.</_></rects>
      <tilted>1</tilted></_>
    <_>
      <rects>
        <_>
          13 1 7 3 -1.</_>
        <_>
          12 2 7 1 3.</_></rects>
      <tilted>1</tilted></_>
    <_>
      <rects>
        <_>
          13 4 2 2 -1.</_>
        <_>
          13 4 1 1 2.</_>
        <_>
          14 5 1 1 2.</_></rects>
      <tilted>0</tilted></_>
    <_>
      <rects>
        <_>
          13 4 3 4 -1.</_>
        <_>
          14 5 1 4 3.</_></rects>
      <tilted>1</tilted></_>
    <_>
      <rects>
        <_>
          13 5 2 8 -1.</_>
        <_>
          13 5 1 8 2.</_></rects>
      <tilted>1</tilted></_>
    <_>
      <rects>
        <_>
          13 10 4 2 -1.</_>
        <_>
          13 10 4 1 2.</_></rects>
      <tilted>1</tilted></_>
    <_>
      <rects>
        <_>
          14 0 6 14 -1.</_>
        <_>
          14 0 3 14 2.</_></rects>
      <tilted>1</tilted></_>
    <_>
      <rects>
        <_>
          14 4 2 3 -1.</_>
        <_>
          14 4 1 3 2.</_></rects>
      <tilted>1</tilted></_>
    <_>
      <rects>
        <_>
          14 5 2 2 -1.</_>
        <_>
          14 5 1 1 2.</_>
        <_>
          15 6 1 1 2.</_></rects>
      <tilted>0</tilted></_>
    <_>
      <rects>
        <_>
          14 5 1 9 -1.</_>
        <_>
          14 8 1 3 3.</_></rects>
      <tilted>0</tilted></_>
    <_>
      <rects>
        <_>
          14 5 2 8 -1.</_>
        <_>
          14 5 1 8 2.</_></rects>
      <tilted>1</tilted></_>
    <_>
      <rects>
        <_>
          14 5 2 8 -1.</_>
        <_>
          12 7 2 4 2.</_></rects>
      <tilted>1</tilted></_>
    <_>
      <rects>
        <_>
          14 6 2 2 -1.</_>
        <_>
          14 6 1 1 2.</_>
        <_>
          15 7 1 1 2.</_></rects>
      <tilted>0</tilted></_>
    <_>
      <rects>
        <_>
          14 6 2 8 -1.</_>
        <_>
          12 8 2 4 2.</_></rects>
      <tilted>1</tilted></_>
    <_>
      <rects>
        <_>
          14 10 2 4 -1.</_>
        <_>
          15 10 1 4 2.</_></rects>
      <tilted>0</tilted></_>
    <_>
      <rects>
        <_>
          15 5 2 3 -1.</_>
        <_>
          15 5 1 3 2.</_></rects>
      <tilted>1</tilted></_>
    <_>
      <rects>
        <_>
          15 6 2 2 -1.</_>
        <_>
          15 6 1 1 2.</_>
        <_>
          16 7 1 1 2.</_></rects>
      <tilted>0</tilted></_>
    <_>
      <rects>
        <_>
          15 12 2 2 -1.</_>
        <_>
          15 12 1 1 2.</_>
        <_>
          16 13 1 1 2.</_></rects>
      <tilted>0</tilted></_>
    <_>
      <rects>
        <_>
          17 9 3 7 -1.</_>
        <_>
          18 10 1 7 3.</_></rects>
      <tilted>1</tilted></_>
    <_>
      <rects>
        <_>
          17 9 3 8 -1.</_>
        <_>
          18 10 1 8 3.</_></rects>
      <tilted>1</tilted></_>
    <_>
      <rects>
        <_>
          17 10 3 6 -1.</_>
        <_>
          18 11 1 6 3.</_></rects>
      <tilted>1</tilted></_>
    <_>
      <rects>
        <_>
          17 10 3 7 -1.</_>
        <_>
          18 11 1 7 3.</_></rects>
      <tilted>1</tilted></_>
    <_>
      <rects>
        <_>
          18 10 2 8 -1.</_>
        <_>
          18 10 1 8 2.</_></rects>
      <tilted>1</tilted></_>
    <_>
      <rects>
        <_>
          18 11 2 7 -1.</_>
        <_>
          18 11 1 7 2.</_></rects>
      <tilted>1</tilted></_></features></cascade>
</opencv_storage>
